<Root>
  <ActivationFunctions>
    <Fn id="0" name="SteepenedSigmoid" prob="1" />
  </ActivationFunctions>
  <Networks>
    <Network id="1420408" birthGen="11642" fitness="8">
      <Nodes>
        <Node type="bias" id="0" />
        <Node type="in" id="1" />
        <Node type="in" id="2" />
        <Node type="in" id="3" />
        <Node type="in" id="4" />
        <Node type="in" id="5" />
        <Node type="in" id="6" />
        <Node type="in" id="7" />
        <Node type="in" id="8" />
        <Node type="in" id="9" />
        <Node type="out" id="10" />
        <Node type="out" id="11" />
        <Node type="out" id="12" />
        <Node type="out" id="13" />
        <Node type="out" id="14" />
        <Node type="out" id="15" />
        <Node type="out" id="16" />
        <Node type="out" id="17" />
        <Node type="out" id="18" />
        <Node type="hid" id="2774" />
        <Node type="hid" id="3469" />
        <Node type="hid" id="3507" />
        <Node type="hid" id="3624" />
        <Node type="hid" id="3628" />
        <Node type="hid" id="3638" />
        <Node type="hid" id="3722" />
        <Node type="hid" id="3827" />
        <Node type="hid" id="3861" />
        <Node type="hid" id="3921" />
        <Node type="hid" id="3966" />
        <Node type="hid" id="3995" />
        <Node type="hid" id="4133" />
        <Node type="hid" id="4237" />
        <Node type="hid" id="4258" />
        <Node type="hid" id="4262" />
        <Node type="hid" id="4266" />
        <Node type="hid" id="4496" />
        <Node type="hid" id="4531" />
        <Node type="hid" id="4711" />
        <Node type="hid" id="4737" />
        <Node type="hid" id="4917" />
        <Node type="hid" id="5172" />
      </Nodes>
      <Connections>
        <Con id="113" src="15" tgt="17" wght="0.58175288165574934" />
        <Con id="127" src="5" tgt="14" wght="-1.8171427106946076" />
        <Con id="130" src="13" tgt="15" wght="0.58719651427401887" />
        <Con id="138" src="18" tgt="11" wght="-0.33052928169755336" />
        <Con id="154" src="1" tgt="14" wght="-5.1297266833134278" />
        <Con id="156" src="3" tgt="12" wght="-1.6052096292912568" />
        <Con id="166" src="9" tgt="15" wght="-3.1577026575001987" />
        <Con id="171" src="16" tgt="10" wght="0.18831576637018976" />
        <Con id="183" src="2" tgt="11" wght="-1.3155197232260334" />
        <Con id="186" src="6" tgt="18" wght="-3.394339186829467" />
        <Con id="202" src="7" tgt="18" wght="3.0128113413229585" />
        <Con id="205" src="15" tgt="16" wght="2.4525274150073528" />
        <Con id="214" src="14" tgt="12" wght="-0.0038564506483891869" />
        <Con id="226" src="4" tgt="18" wght="-4.4373785797506571" />
        <Con id="227" src="0" tgt="14" wght="4.1334501374512911" />
        <Con id="228" src="1" tgt="12" wght="6.975788165090643" />
        <Con id="229" src="15" tgt="14" wght="0.53866040037222662" />
        <Con id="230" src="15" tgt="11" wght="0.89834640860764881" />
        <Con id="237" src="9" tgt="16" wght="6.3897872449760431" />
        <Con id="255" src="1" tgt="15" wght="0.2474532974883914" />
        <Con id="285" src="14" tgt="13" wght="-4.27656633796427" />
        <Con id="322" src="4" tgt="12" wght="0.20148720135679768" />
        <Con id="346" src="11" tgt="16" wght="-4.5586963757335148" />
        <Con id="391" src="14" tgt="11" wght="1.9187757227987978" />
        <Con id="397" src="13" tgt="11" wght="-1.4987764632284768" />
        <Con id="400" src="11" tgt="18" wght="5.343265792758368" />
        <Con id="419" src="12" tgt="13" wght="-3.5794641826078331" />
        <Con id="429" src="13" tgt="10" wght="2.4143189397388927" />
        <Con id="431" src="11" tgt="17" wght="-3.7666683322443104" />
        <Con id="469" src="7" tgt="15" wght="-3.7427203208539943" />
        <Con id="480" src="5" tgt="17" wght="3.7232830611622152" />
        <Con id="494" src="14" tgt="16" wght="-0.41138990658029495" />
        <Con id="553" src="11" tgt="14" wght="1.8226518481969833" />
        <Con id="594" src="6" tgt="17" wght="3.8748374742729554" />
        <Con id="601" src="14" tgt="14" wght="-3.3223401522263885" />
        <Con id="604" src="17" tgt="11" wght="-3.9735866943374276" />
        <Con id="634" src="11" tgt="11" wght="-3.9438728475943208" />
        <Con id="715" src="3" tgt="18" wght="-3.2905148761346936" />
        <Con id="904" src="0" tgt="15" wght="-1.0639979830011725" />
        <Con id="932" src="5" tgt="13" wght="7.6523381778880868" />
        <Con id="1043" src="7" tgt="10" wght="-2.0357559448385363" />
        <Con id="1057" src="16" tgt="17" wght="-2.4830342456698418" />
        <Con id="2810" src="14" tgt="2774" wght="0.19533442567574319" />
        <Con id="3254" src="2774" tgt="2774" wght="1.1185332899332676" />
        <Con id="3471" src="3469" tgt="15" wght="-0.79003995821336614" />
        <Con id="3492" src="13" tgt="3469" wght="3.0562659053989729" />
        <Con id="3508" src="12" tgt="3507" wght="-1.3489577047698091" />
        <Con id="3509" src="3507" tgt="13" wght="0.92060019262135029" />
        <Con id="3511" src="11" tgt="3507" wght="1.9355699266826527" />
        <Con id="3519" src="6" tgt="3507" wght="-3.7305051926523447" />
        <Con id="3546" src="7" tgt="3507" wght="1.8948290686793796" />
        <Con id="3559" src="16" tgt="3469" wght="3.9866593143272477" />
        <Con id="3578" src="3469" tgt="12" wght="-4.1698082464379365" />
        <Con id="3600" src="3469" tgt="17" wght="0.64776627966876044" />
        <Con id="3626" src="3624" tgt="16" wght="-5.2843495943424879" />
        <Con id="3629" src="2774" tgt="3628" wght="-1.9258794717811174" />
        <Con id="3630" src="3628" tgt="12" wght="-2.4667850039760388" />
        <Con id="3634" src="2" tgt="3507" wght="-4.176717638832729" />
        <Con id="3640" src="3638" tgt="18" wght="2.6664490881287661" />
        <Con id="3649" src="3469" tgt="3638" wght="3.0887031109097194" />
        <Con id="3662" src="3469" tgt="18" wght="4.0471202414482832" />
        <Con id="3676" src="11" tgt="3628" wght="-1.0416691392174511" />
        <Con id="3704" src="3628" tgt="17" wght="-3.8558383157983109" />
        <Con id="3726" src="3638" tgt="14" wght="-0.44188896659761667" />
        <Con id="3743" src="15" tgt="3722" wght="0.54551995403190656" />
        <Con id="3752" src="15" tgt="3624" wght="-0.96849808052606379" />
        <Con id="3753" src="3507" tgt="3469" wght="0.3212907572022356" />
        <Con id="3820" src="3469" tgt="11" wght="2.7371473436893474" />
        <Con id="3828" src="15" tgt="3827" wght="-2.5570971453211104" />
        <Con id="3838" src="3722" tgt="14" wght="5.852345837642523" />
        <Con id="3862" src="4" tgt="3861" wght="-5.1263609658386233" />
        <Con id="3863" src="3861" tgt="3638" wght="3.5362696926857971" />
        <Con id="3870" src="2" tgt="3624" wght="-2.8402605188372352" />
        <Con id="3887" src="3628" tgt="2774" wght="4.8257713759561449" />
        <Con id="3905" src="14" tgt="3827" wght="1.070344555406316" />
        <Con id="3913" src="3827" tgt="3624" wght="-0.50047326342320586" />
        <Con id="3923" src="3921" tgt="10" wght="1.2980679894648106" />
        <Con id="3934" src="1" tgt="3628" wght="4.2236157744323064" />
        <Con id="3936" src="0" tgt="3861" wght="-0.044220713835694481" />
        <Con id="3939" src="3507" tgt="3861" wght="-0.34006103413694522" />
        <Con id="3965" src="13" tgt="3921" wght="2.4810847578770896" />
        <Con id="3967" src="14" tgt="3966" wght="-5.8536093663011" />
        <Con id="3968" src="3966" tgt="14" wght="2.1051769827404945" />
        <Con id="3977" src="9" tgt="3861" wght="2.4839731335541146" />
        <Con id="3996" src="3" tgt="3995" wght="3.9612445150670621" />
        <Con id="3997" src="3995" tgt="3921" wght="4.9416371950112143" />
        <Con id="3999" src="11" tgt="3624" wght="-2.7475412209505987" />
        <Con id="4001" src="3827" tgt="10" wght="2.6222101179562092" />
        <Con id="4002" src="3921" tgt="3995" wght="1.4416645151091991" />
        <Con id="4044" src="3624" tgt="3966" wght="4.7633465177715042" />
        <Con id="4109" src="3624" tgt="14" wght="0.34275643265611749" />
        <Con id="4115" src="3827" tgt="13" wght="-2.6438502036035061" />
        <Con id="4134" src="5" tgt="4133" wght="2.8732929984107614" />
        <Con id="4154" src="3628" tgt="3921" wght="-3.0241831662598311" />
        <Con id="4159" src="3921" tgt="15" wght="0.5932279228304923" />
        <Con id="4232" src="3966" tgt="10" wght="-1.5485494211316109" />
        <Con id="4238" src="2774" tgt="4237" wght="-1.3782640686258674" />
        <Con id="4239" src="4237" tgt="13" wght="1.6972915347741535" />
        <Con id="4250" src="3966" tgt="3995" wght="0.88174656517609717" />
        <Con id="4259" src="15" tgt="4258" wght="-0.075812819413840771" />
        <Con id="4264" src="4262" tgt="16" wght="1.31585746794201" />
        <Con id="4267" src="0" tgt="4266" wght="-3.2607579690638406" />
        <Con id="4268" src="4266" tgt="4262" wght="-2.816741881775894" />
        <Con id="4350" src="3628" tgt="4133" wght="0.46343572437763214" />
        <Con id="4401" src="3966" tgt="4262" wght="4.7649849094515524" />
        <Con id="4420" src="10" tgt="3827" wght="-1.0387735276009884" />
        <Con id="4444" src="3861" tgt="3628" wght="-4.5441339164972305" />
        <Con id="4461" src="3507" tgt="4262" wght="-1.2777995531489998" />
        <Con id="4477" src="4258" tgt="4258" wght="-4.1070614370634919" />
        <Con id="4497" src="13" tgt="4496" wght="5.42189030534982" />
        <Con id="4498" src="4496" tgt="3827" wght="4.616117340554136" />
        <Con id="4532" src="3" tgt="4531" wght="0.58072363997608678" />
        <Con id="4533" src="4531" tgt="13" wght="-0.46929263969977963" />
        <Con id="4535" src="6" tgt="3638" wght="2.3678584970797858" />
        <Con id="4545" src="3" tgt="4496" wght="-1.9744448410347104" />
        <Con id="4546" src="4262" tgt="3638" wght="1.1834027525037527" />
        <Con id="4554" src="3827" tgt="3995" wght="1.8814731457916938" />
        <Con id="4556" src="4531" tgt="12" wght="4.2592185773017395" />
        <Con id="4576" src="10" tgt="3966" wght="-1.8399293085581931" />
        <Con id="4613" src="4237" tgt="3827" wght="-0.52563962418179677" />
        <Con id="4616" src="3507" tgt="4266" wght="4.2562076698128433" />
        <Con id="4644" src="3628" tgt="3638" wght="-3.5416751998542138" />
        <Con id="4648" src="4258" tgt="16" wght="-3.4311839188532787" />
        <Con id="4690" src="4237" tgt="10" wght="4.4817960169166327" />
        <Con id="4712" src="3507" tgt="4711" wght="2.248290482471754" />
        <Con id="4713" src="4711" tgt="17" wght="-0.50918912049382925" />
        <Con id="4738" src="4258" tgt="4737" wght="2.5316516535207265" />
        <Con id="4739" src="4737" tgt="10" wght="2.2754645798079713" />
        <Con id="4746" src="4711" tgt="3921" wght="3.276795070280496" />
        <Con id="4749" src="4496" tgt="3966" wght="-0.908194831572473" />
        <Con id="4790" src="4237" tgt="4737" wght="4.6175545333091117" />
        <Con id="4888" src="4531" tgt="10" wght="1.1870463739897823" />
        <Con id="4911" src="3966" tgt="4496" wght="-1.4424192647969176" />
        <Con id="4914" src="0" tgt="4711" wght="5.8870920320867359" />
        <Con id="4918" src="4258" tgt="4917" wght="4.0826251264661551" />
        <Con id="4919" src="4917" tgt="4737" wght="1.0469845979804637" />
        <Con id="4922" src="8" tgt="4917" wght="0.27953218203037977" />
        <Con id="4991" src="4133" tgt="10" wght="-3.1302732020666291" />
        <Con id="5133" src="3995" tgt="13" wght="0.65687292397605856" />
        <Con id="5134" src="1" tgt="4737" wght="3.3200064079298515" />
        <Con id="5173" src="2" tgt="5172" wght="3.5131988962208811" />
        <Con id="5174" src="5172" tgt="3995" wght="4.584840114108097" />
        <Con id="5185" src="4917" tgt="14" wght="-3.5061796035662063" />
        <Con id="5211" src="4711" tgt="3624" wght="-3.860678244382143" />
      </Connections>
    </Network>
    <Network id="2222766" birthGen="17852" fitness="6">
      <Nodes>
        <Node type="bias" id="0" />
        <Node type="in" id="1" />
        <Node type="in" id="2" />
        <Node type="in" id="3" />
        <Node type="in" id="4" />
        <Node type="in" id="5" />
        <Node type="in" id="6" />
        <Node type="in" id="7" />
        <Node type="in" id="8" />
        <Node type="in" id="9" />
        <Node type="out" id="10" />
        <Node type="out" id="11" />
        <Node type="out" id="12" />
        <Node type="out" id="13" />
        <Node type="out" id="14" />
        <Node type="out" id="15" />
        <Node type="out" id="16" />
        <Node type="out" id="17" />
        <Node type="out" id="18" />
        <Node type="hid" id="7498" />
        <Node type="hid" id="7570" />
        <Node type="hid" id="7768" />
        <Node type="hid" id="7771" />
        <Node type="hid" id="7781" />
        <Node type="hid" id="7837" />
        <Node type="hid" id="7938" />
        <Node type="hid" id="8048" />
        <Node type="hid" id="8065" />
        <Node type="hid" id="8078" />
        <Node type="hid" id="8093" />
        <Node type="hid" id="8157" />
        <Node type="hid" id="8263" />
        <Node type="hid" id="8333" />
        <Node type="hid" id="8469" />
        <Node type="hid" id="8474" />
        <Node type="hid" id="8513" />
        <Node type="hid" id="8548" />
        <Node type="hid" id="8690" />
        <Node type="hid" id="8712" />
      </Nodes>
      <Connections>
        <Con id="120" src="16" tgt="18" wght="-3.75179161074971" />
        <Con id="128" src="4" tgt="15" wght="-0.1562218549525107" />
        <Con id="142" src="10" tgt="10" wght="1.7478653925420549" />
        <Con id="143" src="6" tgt="16" wght="-3.5906292627408911" />
        <Con id="145" src="1" tgt="15" wght="1.7923310771584511" />
        <Con id="159" src="13" tgt="12" wght="-4.2252540341330862" />
        <Con id="164" src="1" tgt="11" wght="-3.9302162561778049" />
        <Con id="166" src="14" tgt="10" wght="0.34370515333289364" />
        <Con id="173" src="0" tgt="18" wght="1.0034158525790267" />
        <Con id="181" src="11" tgt="10" wght="0.81661395262926817" />
        <Con id="183" src="8" tgt="16" wght="-2.160682687535882" />
        <Con id="194" src="13" tgt="10" wght="-1.4668151456862688" />
        <Con id="199" src="3" tgt="11" wght="-1.5914513822644949" />
        <Con id="218" src="12" tgt="11" wght="-2.2693324074850363" />
        <Con id="224" src="11" tgt="16" wght="-3.9266525069251657" />
        <Con id="244" src="11" tgt="12" wght="3.4436438974812749" />
        <Con id="252" src="7" tgt="13" wght="2.0000024093315005" />
        <Con id="255" src="3" tgt="18" wght="0.8039065234674172" />
        <Con id="258" src="10" tgt="17" wght="1.2450030040660545" />
        <Con id="259" src="7" tgt="18" wght="-2.2785120305089714" />
        <Con id="288" src="0" tgt="11" wght="-1.9431602070108056" />
        <Con id="291" src="0" tgt="14" wght="-0.92650110977605615" />
        <Con id="292" src="13" tgt="16" wght="2.1436076844111085" />
        <Con id="305" src="10" tgt="18" wght="-0.66594256402969687" />
        <Con id="311" src="15" tgt="16" wght="-1.1151429312303662" />
        <Con id="312" src="9" tgt="11" wght="3.4015561360865831" />
        <Con id="320" src="10" tgt="15" wght="-1.047596936938596" />
        <Con id="323" src="4" tgt="18" wght="4.7494670003652573" />
        <Con id="334" src="1" tgt="10" wght="-1.4077048519559656" />
        <Con id="335" src="12" tgt="12" wght="-2.4005938515755743" />
        <Con id="337" src="2" tgt="13" wght="-4.7376211564757051" />
        <Con id="354" src="1" tgt="18" wght="-3.9029498817399144" />
        <Con id="362" src="5" tgt="16" wght="-3.1265009474009275" />
        <Con id="383" src="9" tgt="10" wght="-0.70840060813348626" />
        <Con id="397" src="1" tgt="16" wght="-1.5060570039802721" />
        <Con id="401" src="2" tgt="14" wght="2.2958348602981267" />
        <Con id="421" src="17" tgt="18" wght="6.042047058791117" />
        <Con id="448" src="15" tgt="17" wght="1.5345264365896583" />
        <Con id="451" src="14" tgt="14" wght="-3.5008346377447448" />
        <Con id="542" src="7" tgt="17" wght="3.815016804989309" />
        <Con id="593" src="2" tgt="18" wght="3.5626404172199693" />
        <Con id="644" src="14" tgt="18" wght="2.654688055627048" />
        <Con id="983" src="6" tgt="14" wght="-0.47056765295565128" />
        <Con id="1045" src="1" tgt="17" wght="0.68062203004956245" />
        <Con id="1330" src="8" tgt="13" wght="0.14492445159703493" />
        <Con id="7500" src="7498" tgt="15" wght="-4.8620427845669232" />
        <Con id="7511" src="2" tgt="7498" wght="-3.2820783600314596" />
        <Con id="7515" src="7498" tgt="14" wght="1.3450125977396965" />
        <Con id="7538" src="11" tgt="7498" wght="-0.74574922675338962" />
        <Con id="7544" src="7498" tgt="18" wght="3.2970286845851162" />
        <Con id="7566" src="13" tgt="7498" wght="0.98980775039806623" />
        <Con id="7571" src="13" tgt="7570" wght="-3.61361491183256" />
        <Con id="7572" src="7570" tgt="11" wght="-0.95916560968328246" />
        <Con id="7629" src="8" tgt="7570" wght="2.2127004916189206" />
        <Con id="7649" src="12" tgt="7570" wght="-1.1631955951452255" />
        <Con id="7770" src="7768" tgt="15" wght="-3.0792584037408233" />
        <Con id="7772" src="6" tgt="7771" wght="-0.26663392227085042" />
        <Con id="7773" src="7771" tgt="18" wght="2.1911426726728678" />
        <Con id="7780" src="7570" tgt="7768" wght="-0.15331253823106972" />
        <Con id="7782" src="10" tgt="7781" wght="3.9053928700781984" />
        <Con id="7783" src="7781" tgt="13" wght="-4.6432189898166447" />
        <Con id="7787" src="9" tgt="7771" wght="-2.0699047036579108" />
        <Con id="7809" src="7768" tgt="13" wght="-0.70586666823768351" />
        <Con id="7822" src="7768" tgt="7771" wght="-2.9467909550128879" />
        <Con id="7838" src="10" tgt="7837" wght="0.11773413047194481" />
        <Con id="7859" src="7498" tgt="7781" wght="3.2926310412585735" />
        <Con id="7871" src="7781" tgt="10" wght="-3.77733227744882" />
        <Con id="7888" src="18" tgt="7837" wght="2.7059134146551749" />
        <Con id="7889" src="8" tgt="7781" wght="1.87085866769036" />
        <Con id="7890" src="7837" tgt="7781" wght="-0.79765729562259469" />
        <Con id="7911" src="7771" tgt="13" wght="-1.371313002939085" />
        <Con id="7930" src="7498" tgt="7771" wght="4.9620256912075931" />
        <Con id="7932" src="9" tgt="7837" wght="-3.0149421283569726" />
        <Con id="7939" src="8" tgt="7938" wght="4.6534323680578007" />
        <Con id="7941" src="7768" tgt="18" wght="-3.1264523591310125" />
        <Con id="7942" src="18" tgt="7771" wght="-4.0624434801691649" />
        <Con id="7945" src="17" tgt="7837" wght="-0.11856838715872019" />
        <Con id="7950" src="10" tgt="7938" wght="0.21003805100917816" />
        <Con id="7974" src="7781" tgt="7771" wght="1.1416131240629706" />
        <Con id="7980" src="7837" tgt="10" wght="-3.9653345290571451" />
        <Con id="7989" src="0" tgt="7938" wght="1.0323349289040724" />
        <Con id="7997" src="7768" tgt="7938" wght="-4.442083472713283" />
        <Con id="7998" src="4" tgt="7837" wght="-0.25822735391557217" />
        <Con id="8049" src="7938" tgt="8048" wght="0.83571129711562842" />
        <Con id="8050" src="8048" tgt="10" wght="1.4924734737724066" />
        <Con id="8066" src="7781" tgt="8065" wght="-2.1994953453797077" />
        <Con id="8067" src="8065" tgt="10" wght="3.7245140216825412" />
        <Con id="8072" src="12" tgt="8048" wght="0.79465982819391734" />
        <Con id="8079" src="7570" tgt="8078" wght="-1.5504617370363247" />
        <Con id="8080" src="8078" tgt="7498" wght="2.6590193160855606" />
        <Con id="8082" src="8065" tgt="7771" wght="3.6508784722536802" />
        <Con id="8094" src="1" tgt="8093" wght="-0.64967062324285507" />
        <Con id="8095" src="8093" tgt="18" wght="-3.6944787809625268" />
        <Con id="8106" src="12" tgt="7768" wght="4.3630353937932851" />
        <Con id="8130" src="7938" tgt="12" wght="0.40580722030671268" />
        <Con id="8135" src="8078" tgt="8093" wght="-3.3297219080850482" />
        <Con id="8142" src="13" tgt="8093" wght="-0.52819434522154207" />
        <Con id="8152" src="13" tgt="8048" wght="-0.934409718029201" />
        <Con id="8158" src="0" tgt="8157" wght="-2.5968160154297948" />
        <Con id="8170" src="3" tgt="8065" wght="-0.31054413411766291" />
        <Con id="8177" src="7768" tgt="7768" wght="4.8644271566763315" />
        <Con id="8182" src="6" tgt="8065" wght="-0.11594635503831219" />
        <Con id="8184" src="7837" tgt="7570" wght="-1.8583799994457255" />
        <Con id="8264" src="17" tgt="8263" wght="-0.548885215377144" />
        <Con id="8270" src="8065" tgt="16" wght="-0.52809056825935841" />
        <Con id="8274" src="2" tgt="8048" wght="-1.5830151563241406" />
        <Con id="8281" src="8263" tgt="18" wght="4.3784068547985857" />
        <Con id="8318" src="8093" tgt="14" wght="3.9492716121032752" />
        <Con id="8329" src="8048" tgt="8065" wght="-1.3299958102244804" />
        <Con id="8334" src="8263" tgt="8333" wght="4.6970751994222439" />
        <Con id="8335" src="8333" tgt="7498" wght="-1.1180190543229382" />
        <Con id="8342" src="7771" tgt="8078" wght="0.31148555499210434" />
        <Con id="8349" src="11" tgt="8333" wght="2.4990059807617939" />
        <Con id="8378" src="9" tgt="8333" wght="3.6759692069020677" />
        <Con id="8421" src="8048" tgt="7837" wght="-3.5390314906010913" />
        <Con id="8427" src="17" tgt="7938" wght="-0.30268336646258831" />
        <Con id="8438" src="17" tgt="8078" wght="-0.85865217411314365" />
        <Con id="8446" src="8263" tgt="7938" wght="2.5288778496906161" />
        <Con id="8462" src="5" tgt="8333" wght="-0.02275428552319303" />
        <Con id="8470" src="11" tgt="8469" wght="1.4887387016134179" />
        <Con id="8471" src="8469" tgt="13" wght="-1.892632027156651" />
        <Con id="8472" src="17" tgt="8093" wght="1.2653404520824552" />
        <Con id="8475" src="8078" tgt="8474" wght="-4.3213207077598179" />
        <Con id="8476" src="8474" tgt="12" wght="-3.29917313948436" />
        <Con id="8477" src="16" tgt="8469" wght="0.91426972765475512" />
        <Con id="8497" src="8078" tgt="8048" wght="1.6921782959252596" />
        <Con id="8514" src="2" tgt="8513" wght="3.0450011743232608" />
        <Con id="8515" src="8513" tgt="17" wght="3.2350027093855793" />
        <Con id="8520" src="8513" tgt="12" wght="6.0271517118765052" />
        <Con id="8549" src="8333" tgt="8548" wght="-1.1419426953986305" />
        <Con id="8550" src="8548" tgt="11" wght="-1.9736958470896493" />
        <Con id="8551" src="8513" tgt="8157" wght="-3.5707280317594545" />
        <Con id="8552" src="7781" tgt="8513" wght="-1.9441760351314876" />
        <Con id="8589" src="7837" tgt="8469" wght="3.8527673855423927" />
        <Con id="8629" src="8" tgt="8157" wght="2.5016981062043029" />
        <Con id="8691" src="15" tgt="8690" wght="-4.90783897228539" />
        <Con id="8692" src="8690" tgt="12" wght="-0.44184852857142687" />
        <Con id="8713" src="7498" tgt="8712" wght="-6.1326314139490758" />
        <Con id="8714" src="8712" tgt="10" wght="5" />
        <Con id="8731" src="8157" tgt="8048" wght="-3.9574149390682578" />
      </Connections>
    </Network>
  </Networks>
</Root>