<Root>
  <ActivationFunctions>
    <Fn id="0" name="SteepenedSigmoid" prob="1" />
  </ActivationFunctions>
  <Networks>
    <Network id="31920" birthGen="263" fitness="1436">
      <Nodes>
        <Node type="bias" id="0" fnId="0" />
        <Node type="in" id="1" fnId="0" />
        <Node type="in" id="2" fnId="0" />
        <Node type="in" id="3" fnId="0" />
        <Node type="in" id="4" fnId="0" />
        <Node type="in" id="5" fnId="0" />
        <Node type="in" id="6" fnId="0" />
        <Node type="in" id="7" fnId="0" />
        <Node type="in" id="8" fnId="0" />
        <Node type="in" id="9" fnId="0" />
        <Node type="out" id="10" fnId="0" />
        <Node type="out" id="11" fnId="0" />
        <Node type="out" id="12" fnId="0" />
        <Node type="out" id="13" fnId="0" />
        <Node type="out" id="14" fnId="0" />
        <Node type="out" id="15" fnId="0" />
        <Node type="out" id="16" fnId="0" />
        <Node type="out" id="17" fnId="0" />
        <Node type="out" id="18" fnId="0" />
        <Node type="hid" id="190" fnId="0" />
      </Nodes>
      <Connections>
        <Con id="21" src="0" tgt="12" wght="-0.54955603554844856" />
        <Con id="22" src="0" tgt="13" wght="-3.3754223751719943" />
        <Con id="39" src="2" tgt="12" wght="1.2073662434096562" />
        <Con id="42" src="2" tgt="15" wght="-10.506032595247515" />
        <Con id="55" src="4" tgt="10" wght="1.0936059816375048" />
        <Con id="56" src="4" tgt="11" wght="0.00038303556685947981" />
        <Con id="70" src="5" tgt="16" wght="-1.268397576784243" />
        <Con id="73" src="6" tgt="10" wght="-2.3762859171256423" />
        <Con id="74" src="6" tgt="11" wght="2.5549862564266763" />
        <Con id="94" src="8" tgt="13" wght="-4.8105994021875205" />
        <Con id="95" src="8" tgt="14" wght="1.3437606069721921" />
        <Con id="99" src="8" tgt="18" wght="4.160242429934442" />
        <Con id="116" src="0" tgt="14" wght="-2.7424975205212831" />
        <Con id="119" src="4" tgt="15" wght="2.9503275034949183" />
        <Con id="127" src="3" tgt="12" wght="-1.9918843365399395" />
        <Con id="129" src="12" tgt="13" wght="-3.9094859675346552" />
        <Con id="132" src="3" tgt="16" wght="0.81861984933822263" />
        <Con id="135" src="18" tgt="14" wght="5.2243956150731155" />
        <Con id="136" src="14" tgt="16" wght="-3.7418132312000743" />
        <Con id="153" src="16" tgt="14" wght="0.75260415337478381" />
        <Con id="179" src="5" tgt="14" wght="3.7037590984255075" />
        <Con id="184" src="17" tgt="11" wght="-0.39805185272769961" />
        <Con id="188" src="12" tgt="18" wght="-5.1000149152515029" />
        <Con id="191" src="8" tgt="190" wght="3.629796183668077" />
        <Con id="192" src="190" tgt="18" wght="-4.176344310460669" />
        <Con id="194" src="2" tgt="17" wght="2.9182443581521511" />
        <Con id="208" src="0" tgt="16" wght="3.77575130321739" />
        <Con id="215" src="3" tgt="190" wght="-2.8549933098480138" />
        <Con id="230" src="18" tgt="18" wght="4.1975360807208819" />
      </Connections>
    </Network>
  </Networks>
</Root>