<Root>
  <ActivationFunctions>
    <Fn id="0" name="SteepenedSigmoid" prob="1" />
  </ActivationFunctions>
  <Networks>
    <Network id="209921" birthGen="1743" fitness="910">
      <Nodes>
        <Node type="bias" id="0" />
        <Node type="in" id="1" />
        <Node type="in" id="2" />
        <Node type="in" id="3" />
        <Node type="in" id="4" />
        <Node type="in" id="5" />
        <Node type="in" id="6" />
        <Node type="in" id="7" />
        <Node type="in" id="8" />
        <Node type="in" id="9" />
        <Node type="out" id="10" />
        <Node type="out" id="11" />
        <Node type="out" id="12" />
        <Node type="out" id="13" />
        <Node type="out" id="14" />
        <Node type="out" id="15" />
        <Node type="out" id="16" />
        <Node type="out" id="17" />
        <Node type="out" id="18" />
        <Node type="hid" id="123" />
        <Node type="hid" id="129" />
        <Node type="hid" id="191" />
      </Nodes>
      <Connections>
        <Con id="22" src="0" tgt="13" wght="-6.70787212870457" />
        <Con id="29" src="1" tgt="11" wght="4.2493058946335012" />
        <Con id="83" src="7" tgt="11" wght="4.7728978066264487" />
        <Con id="90" src="7" tgt="18" wght="-2.3695703947273041" />
        <Con id="93" src="8" tgt="12" wght="0.68760381244162938" />
        <Con id="94" src="8" tgt="13" wght="2.0613218846917674" />
        <Con id="101" src="9" tgt="11" wght="-2.9132719105109572" />
        <Con id="115" src="17" tgt="14" wght="0.69314507937011149" />
        <Con id="124" src="9" tgt="123" wght="-8.849225856370337" />
        <Con id="125" src="123" tgt="16" wght="2.1876402949735732" />
        <Con id="130" src="0" tgt="129" wght="3.98772009341624" />
        <Con id="131" src="129" tgt="16" wght="-1.3272745427632156" />
        <Con id="132" src="17" tgt="11" wght="-5.3402238585962944" />
        <Con id="155" src="16" tgt="16" wght="1.4732424402609468" />
        <Con id="164" src="3" tgt="13" wght="8.9570496095686956" />
        <Con id="167" src="14" tgt="12" wght="0.98314371019421842" />
        <Con id="174" src="11" tgt="12" wght="3.8023563949516728" />
        <Con id="178" src="123" tgt="10" wght="12.744983076282571" />
        <Con id="181" src="8" tgt="18" wght="5.9652005103634025" />
        <Con id="182" src="11" tgt="10" wght="0.75559089153560055" />
        <Con id="192" src="6" tgt="191" wght="4.6113625587895513" />
        <Con id="194" src="3" tgt="11" wght="-7.3986055421777355" />
        <Con id="196" src="4" tgt="13" wght="-4.1680043480898661" />
        <Con id="200" src="4" tgt="16" wght="-6.211005959683753" />
        <Con id="201" src="3" tgt="18" wght="-0.71364320587459762" />
        <Con id="204" src="16" tgt="18" wght="-0.99062835082475664" />
        <Con id="236" src="0" tgt="18" wght="4.1200848577303679" />
        <Con id="238" src="11" tgt="11" wght="-4.0181377343833447" />
        <Con id="264" src="9" tgt="12" wght="-0.0089457339024497928" />
        <Con id="328" src="17" tgt="191" wght="-0.31531279100173515" />
        <Con id="334" src="17" tgt="10" wght="4.8759065237099071" />
        <Con id="346" src="18" tgt="123" wght="-0.054250266549053482" />
        <Con id="369" src="7" tgt="191" wght="1.348220433289598" />
        <Con id="376" src="5" tgt="11" wght="-6.5102707123778636" />
        <Con id="407" src="4" tgt="191" wght="-5.9781634608059511" />
        <Con id="412" src="123" tgt="12" wght="2.2418440501719745" />
        <Con id="537" src="129" tgt="11" wght="-1.6555458259597016" />
        <Con id="547" src="15" tgt="13" wght="2.6388601091952415" />
      </Connections>
    </Network>
  </Networks>
</Root>